<?xml version="1.0" encoding="UTF-8"?>
<BIF VERSION="0.3"  xmlns="http://www.cs.ubc.ca/labs/lci/fopi/ve/XMLBIFv0_3"
	xmlns:xsi="http://www.w3.org/2001/XMLSchema-instance"
	xsi:schemaLocation="http://www.cs.ubc.ca/labs/lci/fopi/ve/XMLBIFv0_3 http://www.cs.ubc.ca/labs/lci/fopi/ve/XMLBIFv0_3/XMLBIFv0_3.xsd">
<NETWORK>
<NAME>Untitled</NAME>
<PROPERTY>short = </PROPERTY>
<PROPERTY>detailed = </PROPERTY>

<VARIABLE TYPE="nature">
	<NAME>Battery</NAME>
	<OUTCOME>T</OUTCOME>
	<OUTCOME>F</OUTCOME>
	<PROPERTY>position = (7257.84130859375, 5424.21533203125)</PROPERTY>
</VARIABLE>

<VARIABLE TYPE="nature">
	<NAME>Ignition</NAME>
	<OUTCOME>T</OUTCOME>
	<OUTCOME>F</OUTCOME>
	<PROPERTY>position = (7550.2578125, 5409.4921875)</PROPERTY>
</VARIABLE>

<VARIABLE TYPE="nature">
	<NAME>Gasoline</NAME>
	<OUTCOME>T</OUTCOME>
	<OUTCOME>F</OUTCOME>
	<PROPERTY>position = (7320.00146484375, 5535.970703125)</PROPERTY>
</VARIABLE>

<VARIABLE TYPE="nature">
	<NAME>Precious Fluids</NAME>
	<OUTCOME>T</OUTCOME>
	<OUTCOME>F</OUTCOME>
	<PROPERTY>position = (7299.00390625, 5193.89892578125)</PROPERTY>
</VARIABLE>

<VARIABLE TYPE="nature">
	<NAME>Defroster</NAME>
	<OUTCOME>T</OUTCOME>
	<OUTCOME>F</OUTCOME>
	<PROPERTY>position = (7566.439453125, 5024.029296875)</PROPERTY>
</VARIABLE>

<VARIABLE TYPE="nature">
	<NAME>Tires</NAME>
	<OUTCOME>T</OUTCOME>
	<OUTCOME>F</OUTCOME>
	<PROPERTY>position = (8170.26220703125, 5484.02880859375)</PROPERTY>
</VARIABLE>

<VARIABLE TYPE="nature">
	<NAME>Starts</NAME>
	<OUTCOME>T</OUTCOME>
	<OUTCOME>F</OUTCOME>
	<PROPERTY>position = (7777.220703125, 5486.2158203125)</PROPERTY>
</VARIABLE>

<VARIABLE TYPE="nature">
	<NAME>Basic Transportation</NAME>
	<OUTCOME>T</OUTCOME>
	<OUTCOME>F</OUTCOME>
	<PROPERTY>position = (8005.03271484375, 5337.1025390625)</PROPERTY>
</VARIABLE>

<VARIABLE TYPE="nature">
	<NAME>Safe Vehicle</NAME>
	<OUTCOME>T</OUTCOME>
	<OUTCOME>F</OUTCOME>
	<PROPERTY>position = (8079.84228515625, 5209.1689453125)</PROPERTY>
</VARIABLE>

<VARIABLE TYPE="nature">
	<NAME>Headlights</NAME>
	<OUTCOME>T</OUTCOME>
	<OUTCOME>F</OUTCOME>
	<PROPERTY>position = (7683.45361328125, 5295.478515625)</PROPERTY>
</VARIABLE>

<VARIABLE TYPE="nature">
	<NAME>Windshield Wipers</NAME>
	<OUTCOME>T</OUTCOME>
	<OUTCOME>F</OUTCOME>
	<PROPERTY>position = (7684.51611328125, 5358.34326171875)</PROPERTY>
</VARIABLE>

<VARIABLE TYPE="nature">
	<NAME>Brakes</NAME>
	<OUTCOME>T</OUTCOME>
	<OUTCOME>F</OUTCOME>
	<PROPERTY>position = (7708.61962890625, 5229.19140625)</PROPERTY>
</VARIABLE>

<VARIABLE TYPE="nature">
	<NAME>Brakelights</NAME>
	<OUTCOME>T</OUTCOME>
	<OUTCOME>F</OUTCOME>
	<PROPERTY>position = (7683.96533203125, 5091.2314453125)</PROPERTY>
</VARIABLE>

<VARIABLE TYPE="nature">
	<NAME>Alarm</NAME>
	<OUTCOME>T</OUTCOME>
	<OUTCOME>F</OUTCOME>
	<PROPERTY>position = (7463.78466796875, 5102.07080078125)</PROPERTY>
</VARIABLE>

<VARIABLE TYPE="nature">
	<NAME>Horn</NAME>
	<OUTCOME>T</OUTCOME>
	<OUTCOME>F</OUTCOME>
	<PROPERTY>position = (7564.4384765625, 5285.93310546875)</PROPERTY>
</VARIABLE>

<VARIABLE TYPE="nature">
	<NAME>Attempted vehicle theft</NAME>
	<OUTCOME>T</OUTCOME>
	<OUTCOME>F</OUTCOME>
	<PROPERTY>position = (7218.37158203125, 5046.5869140625)</PROPERTY>
</VARIABLE>

<VARIABLE TYPE="nature">
	<NAME>Accidental Door Ding of Parked Car</NAME>
	<OUTCOME>T</OUTCOME>
	<OUTCOME>F</OUTCOME>
	<PROPERTY>position = (7199.73779296875, 5129.0595703125)</PROPERTY>
</VARIABLE>

<DEFINITION>
	<FOR>Battery</FOR>
	<TABLE>0.5 0.5</TABLE>
</DEFINITION>

<DEFINITION>
	<FOR>Ignition</FOR>
	<GIVEN>Battery</GIVEN>
	<TABLE>0.95 0.05 0.0 1.0</TABLE>
</DEFINITION>

<DEFINITION>
	<FOR>Gasoline</FOR>
	<TABLE>0.5 0.5</TABLE>
</DEFINITION>

<DEFINITION>
	<FOR>Precious Fluids</FOR>
	<TABLE>0.5 0.5</TABLE>
</DEFINITION>

<DEFINITION>
	<FOR>Defroster</FOR>
	<GIVEN>Battery</GIVEN>
	<TABLE>0.8 0.2 0.0 1.0</TABLE>
</DEFINITION>

<DEFINITION>
	<FOR>Tires</FOR>
	<TABLE>0.5 0.5</TABLE>
</DEFINITION>

<DEFINITION>
	<FOR>Starts</FOR>
	<GIVEN>Ignition</GIVEN>
	<GIVEN>Gasoline</GIVEN>
	<GIVEN>Precious Fluids</GIVEN>
	<TABLE>0.97 0.03 0.6 0.4 0.5 0.5 0.2 0.8 0.0 1.0 0.0 1.0 0.0 1.0 0.0 1.0</TABLE>
</DEFINITION>

<DEFINITION>
	<FOR>Basic Transportation</FOR>
	<GIVEN>Tires</GIVEN>
	<GIVEN>Starts</GIVEN>
	<GIVEN>Safe Vehicle</GIVEN>
	<GIVEN>Brakes</GIVEN>
	<TABLE>1.0 0.0 0.1 0.9 0.75 0.25 0.05 0.95 0.0 1.0 0.0 1.0 0.0 1.0 0.0 1.0 0.0 1.0 0.0 1.0 0.0 1.0 0.0 1.0 0.0 1.0 0.0 1.0 0.0 1.0 0.0 1.0</TABLE>
</DEFINITION>

<DEFINITION>
	<FOR>Safe Vehicle</FOR>
	<GIVEN>Defroster</GIVEN>
	<GIVEN>Tires</GIVEN>
	<GIVEN>Headlights</GIVEN>
	<GIVEN>Windshield Wipers</GIVEN>
	<GIVEN>Brakes</GIVEN>
	<GIVEN>Brakelights</GIVEN>
	<GIVEN>Alarm</GIVEN>
	<GIVEN>Horn</GIVEN>
	<TABLE>0.99 0.01 0.9 0.1 0.99 0.01 0.9 0.1 0.7 0.3 0.4 0.6 0.7 0.3 0.4 0.6 0.0 1.0 0.0 1.0 0.0 1.0 0.0 1.0 0.0 1.0 0.0 1.0 0.0 1.0 0.0 1.0 0.85 0.15 0.6 0.4 0.85 0.15 0.6 0.4 0.6 0.4 0.2 0.8 0.6 0.4 0.2 0.8 0.0 1.0 0.0 1.0 0.0 1.0 0.0 1.0 0.0 1.0 0.0 1.0 0.0 1.0 0.0 1.0 0.5 0.5 0.3 0.7 0.5 0.5 0.3 0.7 0.25 0.75 0.1 0.9 0.25 0.75 0.1 0.9 0.0 1.0 0.0 1.0 0.0 1.0 0.0 1.0 0.0 1.0 0.0 1.0 0.0 1.0 0.0 1.0 0.25 0.75 0.1 0.9 0.25 0.75 0.1 0.9 0.15 0.85 0.1 0.9 0.15 0.85 0.1 0.9 0.0 1.0 0.0 1.0 0.0 1.0 0.0 1.0 0.0 1.0 0.0 1.0 0.0 1.0 0.0 1.0 1.0 0.0 1.0 0.0 1.0 0.0 1.0 0.0 1.0 0.0 1.0 0.0 1.0 0.0 1.0 0.0 1.0 0.0 1.0 0.0 1.0 0.0 1.0 0.0 1.0 0.0 1.0 0.0 1.0 0.0 1.0 0.0 1.0 0.0 1.0 0.0 1.0 0.0 1.0 0.0 1.0 0.0 1.0 0.0 1.0 0.0 1.0 0.0 1.0 0.0 1.0 0.0 1.0 0.0 1.0 0.0 1.0 0.0 1.0 0.0 1.0 0.0 1.0 0.0 1.0 0.0 1.0 0.0 1.0 0.0 1.0 0.0 1.0 0.0 1.0 0.0 1.0 0.0 1.0 0.0 1.0 0.0 1.0 0.0 1.0 0.0 1.0 0.0 1.0 0.0 1.0 0.0 1.0 0.0 1.0 0.0 1.0 0.0 1.0 0.0 1.0 0.0 1.0 0.0 1.0 0.0 1.0 0.0 1.0 0.0 1.0 0.0 1.0 0.0 1.0 0.0 1.0 0.0 1.0 0.0 1.0 0.0 1.0 0.0 1.0 0.0 1.0 0.0 0.99 0.01 0.9 0.1 0.99 0.01 0.9 0.1 0.7 0.3 0.4 0.6 0.7 0.3 0.4 0.6 0.0 1.0 0.0 1.0 0.0 1.0 0.0 1.0 0.0 1.0 0.0 1.0 0.0 1.0 0.0 1.0 0.85 0.15 0.6 0.4 0.85 0.15 0.6 0.4 0.6 0.4 0.2 0.8 0.6 0.4 0.2 0.8 0.0 1.0 0.0 1.0 0.0 1.0 0.0 1.0 0.0 1.0 0.0 1.0 0.0 1.0 0.0 1.0 0.5 0.5 0.3 0.7 0.5 0.5 0.3 0.7 0.25 0.75 0.1 0.9 0.25 0.75 0.1 0.9 0.0 1.0 0.0 1.0 0.0 1.0 0.0 1.0 0.0 1.0 0.0 1.0 0.0 1.0 0.0 1.0 0.25 0.75 0.1 0.9 0.25 0.75 0.1 0.9 0.15 0.85 0.1 0.9 0.15 0.85 0.1 0.9 0.0 1.0 0.0 1.0 0.0 1.0 0.0 1.0 0.0 1.0 0.0 1.0 0.0 1.0 0.0 1.0 1.0 0.0 1.0 0.0 1.0 0.0 1.0 0.0 1.0 0.0 1.0 0.0 1.0 0.0 1.0 0.0 1.0 0.0 1.0 0.0 1.0 0.0 1.0 0.0 1.0 0.0 1.0 0.0 1.0 0.0 1.0 0.0 1.0 0.0 1.0 0.0 1.0 0.0 1.0 0.0 1.0 0.0 1.0 0.0 1.0 0.0 1.0 0.0 1.0 0.0 1.0 0.0 1.0 0.0 1.0 0.0 1.0 0.0 1.0 0.0 1.0 0.0 1.0 0.0 1.0 0.0 1.0 0.0 1.0 0.0 1.0 0.0 1.0 0.0 1.0 0.0 1.0 0.0 1.0 0.0 1.0 0.0 1.0 0.0 1.0 0.0 1.0 0.0 1.0 0.0 1.0 0.0 1.0 0.0 1.0 0.0 1.0 0.0 1.0 0.0 1.0 0.0 1.0 0.0 1.0 0.0 1.0 0.0 1.0 0.0 1.0 0.0 1.0 0.0 1.0 0.0 1.0 0.0 1.0 0.0 1.0 0.0 1.0 0.0 1.0 0.0 1.0 0.0</TABLE>
</DEFINITION>

<DEFINITION>
	<FOR>Headlights</FOR>
	<GIVEN>Battery</GIVEN>
	<GIVEN>Alarm</GIVEN>
	<TABLE>1.0 0.0 0.97 0.03 0.0 1.0 0.0 1.0</TABLE>
</DEFINITION>

<DEFINITION>
	<FOR>Windshield Wipers</FOR>
	<GIVEN>Battery</GIVEN>
	<TABLE>0.97 0.03 0.0 1.0</TABLE>
</DEFINITION>

<DEFINITION>
	<FOR>Brakes</FOR>
	<GIVEN>Precious Fluids</GIVEN>
	<TABLE>1.0 0.0 0.2 0.8</TABLE>
</DEFINITION>

<DEFINITION>
	<FOR>Brakelights</FOR>
	<GIVEN>Battery</GIVEN>
	<GIVEN>Brakes</GIVEN>
	<GIVEN>Alarm</GIVEN>
	<TABLE>1.0 0.0 0.97 0.03 0.94 0.06 0.9 0.1 0.0 1.0 0.0 1.0 0.0 1.0 0.0 1.0</TABLE>
</DEFINITION>

<DEFINITION>
	<FOR>Alarm</FOR>
	<GIVEN>Battery</GIVEN>
	<GIVEN>Attempted vehicle theft</GIVEN>
	<GIVEN>Accidental Door Ding of Parked Car</GIVEN>
	<TABLE>0.8 0.2 0.7 0.3 0.8 0.2 0.2 0.8 0.0 1.0 0.0 1.0 0.0 1.0 0.0 1.0</TABLE>
</DEFINITION>

<DEFINITION>
	<FOR>Horn</FOR>
	<GIVEN>Battery</GIVEN>
	<GIVEN>Alarm</GIVEN>
	<TABLE>1.0 0.0 0.85 0.15 0.0 1.0 0.0 1.0</TABLE>
</DEFINITION>

<DEFINITION>
	<FOR>Attempted vehicle theft</FOR>
	<TABLE>0.5 0.5</TABLE>
</DEFINITION>

<DEFINITION>
	<FOR>Accidental Door Ding of Parked Car</FOR>
	<TABLE>0.5 0.5</TABLE>
</DEFINITION>
</NETWORK>
</BIF>
